tree
version=v4
num_class=1
num_tree_per_iteration=1
label_index=0
max_feature_idx=41
objective=binary sigmoid:1
feature_names=total_duration_ms first_interaction_delay_ms avg_time_between_actions velocity_mean velocity_max velocity_std action_count_mouse_move action_count_click action_count_keystroke action_count_scroll action_count_idle is_mobile click_avg_click_interval click_click_precision click_double_click_rate keystroke_typing_speed_cpm keystroke_key_hold_time_ms keystroke_key_interval_variance scroll_speed scroll_acceleration pause_frequency page_session_duration_ms page_page_dwell_time_ms page_first_interaction_delay_ms page_form_fill_speed_cpm page_paste_ratio mouse_event_count mouse_path_length mouse_velocity_median mouse_stationary_ratio mouse_duration_ms sequence_event_count sequence_unique_actions visibility_toggle_count timed_action_ratio page_first_interaction_missing page_form_fill_missing page_paste_ratio_missing first_interaction_delay_missing mouse_activity_flag scroll_activity_flag click_activity_flag
feature_infos=[0:290987] [0:12125] [0:57704.3984375] [0:1.2764488458633423] [0:7.2854495048522949] [0:1.6124280691146851] [0:20] [0:12] none none none none [0:16705] none [0:0.25] none [0:77.599998474121094] [0:1932.6875] [0:1.775336742401123] none none [533:291649] [533:291649] [0:12125] [0:120] [0:1] [0:20] [0:4321.5458984375] [0:0.71660780906677246] [0:1] [0:115092] [1:12] [1:5] none [0:1] none none none none none [0:1] none
tree_sizes=357

Tree=0
num_leaves=2
num_cat=0
split_feature=3
split_gain=84.4694
threshold=0.10204495303332807
decision_type=2
left_child=-1
right_child=-2
leaf_value=0.051010452961672462 -0.059189189189189181
leaf_weight=14.250000000000002 10.999999999999998
leaf_count=57 44
internal_value=0.00284024
internal_weight=25.25
internal_count=101
is_linear=0
shrinkage=0.03


end of trees

feature_importances:
velocity_mean=1

parameters:
[boosting: gbdt]
[objective: binary]
[metric: auc,binary_logloss]
[tree_learner: serial]
[device_type: cpu]
[data_sample_strategy: bagging]
[data: ]
[valid: ]
[num_iterations: 500]
[learning_rate: 0.03]
[num_leaves: 15]
[num_threads: 0]
[seed: 42]
[deterministic: 0]
[force_col_wise: 0]
[force_row_wise: 0]
[histogram_pool_size: -1]
[max_depth: 4]
[min_data_in_leaf: 40]
[min_sum_hessian_in_leaf: 0.001]
[bagging_fraction: 0.7]
[pos_bagging_fraction: 1]
[neg_bagging_fraction: 1]
[bagging_freq: 5]
[bagging_seed: 400]
[bagging_by_query: 0]
[feature_fraction: 0.7]
[feature_fraction_bynode: 1]
[feature_fraction_seed: 30056]
[extra_trees: 0]
[extra_seed: 12879]
[early_stopping_round: 0]
[early_stopping_min_delta: 0]
[first_metric_only: 0]
[max_delta_step: 0]
[lambda_l1: 0.1]
[lambda_l2: 0.1]
[linear_lambda: 0]
[min_gain_to_split: 0.01]
[drop_rate: 0.1]
[max_drop: 50]
[skip_drop: 0.5]
[xgboost_dart_mode: 0]
[uniform_drop: 0]
[drop_seed: 17869]
[top_rate: 0.2]
[other_rate: 0.1]
[min_data_per_group: 100]
[max_cat_threshold: 32]
[cat_l2: 10]
[cat_smooth: 10]
[max_cat_to_onehot: 4]
[top_k: 20]
[monotone_constraints: ]
[monotone_constraints_method: basic]
[monotone_penalty: 0]
[feature_contri: ]
[forcedsplits_filename: ]
[refit_decay_rate: 0.9]
[cegb_tradeoff: 1]
[cegb_penalty_split: 0]
[cegb_penalty_feature_lazy: ]
[cegb_penalty_feature_coupled: ]
[path_smooth: 0]
[interaction_constraints: ]
[verbosity: 1]
[saved_feature_importance_type: 0]
[use_quantized_grad: 0]
[num_grad_quant_bins: 4]
[quant_train_renew_leaf: 0]
[stochastic_rounding: 1]
[linear_tree: 0]
[max_bin: 255]
[max_bin_by_feature: ]
[min_data_in_bin: 3]
[bin_construct_sample_cnt: 200000]
[data_random_seed: 175]
[is_enable_sparse: 1]
[enable_bundle: 1]
[use_missing: 1]
[zero_as_missing: 0]
[feature_pre_filter: 1]
[pre_partition: 0]
[two_round: 0]
[header: 0]
[label_column: ]
[weight_column: ]
[group_column: ]
[ignore_column: ]
[categorical_feature: ]
[forcedbins_filename: ]
[precise_float_parser: 0]
[parser_config_file: ]
[objective_seed: 16083]
[num_class: 1]
[is_unbalance: 0]
[scale_pos_weight: 1]
[sigmoid: 1]
[boost_from_average: 1]
[reg_sqrt: 0]
[alpha: 0.9]
[fair_c: 1]
[poisson_max_delta_step: 0.7]
[tweedie_variance_power: 1.5]
[lambdarank_truncation_level: 30]
[lambdarank_norm: 1]
[label_gain: ]
[lambdarank_position_bias_regularization: 0]
[eval_at: ]
[multi_error_top_k: 1]
[auc_mu_weights: ]
[num_machines: 1]
[local_listen_port: 12400]
[time_out: 120]
[machine_list_filename: ]
[machines: ]
[gpu_platform_id: -1]
[gpu_device_id: -1]
[gpu_use_dp: 0]
[num_gpu: 1]

end of parameters

pandas_categorical:null
