tree
version=v4
num_class=1
num_tree_per_iteration=1
label_index=0
max_feature_idx=49
objective=binary sigmoid:1
feature_names=total_duration_ms first_interaction_delay_ms avg_time_between_actions velocity_mean velocity_max velocity_std action_count_click action_count_keystroke action_count_scroll action_count_idle is_mobile click_avg_click_interval click_click_precision click_double_click_rate keystroke_typing_speed_cpm keystroke_key_hold_time_ms keystroke_key_interval_variance scroll_speed scroll_acceleration pause_frequency page_session_duration_ms page_page_dwell_time_ms page_first_interaction_delay_ms page_form_fill_speed_cpm page_paste_ratio mouse_path_length mouse_velocity_median mouse_stationary_ratio mouse_duration_ms sequence_event_count sequence_unique_actions visibility_toggle_count timed_action_ratio page_first_interaction_missing page_form_fill_missing page_paste_ratio_missing first_interaction_delay_missing mouse_activity_flag scroll_activity_flag click_activity_flag mouse_event_rate click_rate keystroke_rate scroll_rate idle_rate click_to_mouse_ratio scroll_to_mouse_ratio keystroke_to_mouse_ratio mouse_avg_speed mouse_path_rate
feature_infos=[1000:8000] [5.5443010330200195:892.55108642578125] [500:1000] [0:0.88990002870559692] [0:1.4049999713897705] [0:0.34292986989021301] [0:10] none [0:1] none none [0:1997.0067138671875] [0:0.8947175145149231] [0:0.24730764329433441] [0:176.74423217773438] [0:158.39961242675781] [0:398.57028198242188] [0:1.7656252384185791] [0:1.3995673656463623] [0:0.18650215864181519] [421.07290649414062:89093.90625] [512.3765869140625:89093.90625] [5.5443010330200195:892.55108642578125] [0:3.4561848640441895] [0:0.19966551661491394] [0:1548.2059326171875] [0:0.93849998712539673] [0:1] [0:1740] [3:17] none none [0:1] none none none none [0:1] [0:1] [0:1] [0:4.2813005447387695] [0:0.2751505970954895] none [0:0.032917879521846771] none [0:1.6666666269302368] [0:0.1666666716337204] none [0:0.88977354764938354] [0:45.665054321289062]
tree_sizes=355

Tree=0
num_leaves=2
num_cat=0
split_feature=32
split_gain=64.5113
threshold=1.0000000180025095e-35
decision_type=2
left_child=-1
right_child=-2
leaf_value=0.079659468258522936 0.19808989649582825
leaf_weight=7.9591836929321298 8.4068878144025803
leaf_count=32 39
internal_value=0.140641
internal_weight=16.3661
internal_count=71
is_linear=0
shrinkage=1


end of trees

feature_importances:
timed_action_ratio=1

parameters:
[boosting: gbdt]
[objective: binary]
[metric: auc,binary_logloss]
[tree_learner: serial]
[device_type: cpu]
[data_sample_strategy: bagging]
[data: ]
[valid: ]
[num_iterations: 500]
[learning_rate: 0.03]
[num_leaves: 31]
[num_threads: 0]
[seed: 42]
[deterministic: 0]
[force_col_wise: 0]
[force_row_wise: 0]
[histogram_pool_size: -1]
[max_depth: 4]
[min_data_in_leaf: 15]
[min_sum_hessian_in_leaf: 0.001]
[bagging_fraction: 0.7]
[pos_bagging_fraction: 1]
[neg_bagging_fraction: 1]
[bagging_freq: 5]
[bagging_seed: 400]
[bagging_by_query: 0]
[feature_fraction: 0.7]
[feature_fraction_bynode: 1]
[feature_fraction_seed: 30056]
[extra_trees: 0]
[extra_seed: 12879]
[early_stopping_round: 0]
[early_stopping_min_delta: 0]
[first_metric_only: 0]
[max_delta_step: 0]
[lambda_l1: 0.1]
[lambda_l2: 0.1]
[linear_lambda: 0]
[min_gain_to_split: 0.01]
[drop_rate: 0.1]
[max_drop: 50]
[skip_drop: 0.5]
[xgboost_dart_mode: 0]
[uniform_drop: 0]
[drop_seed: 17869]
[top_rate: 0.2]
[other_rate: 0.1]
[min_data_per_group: 100]
[max_cat_threshold: 32]
[cat_l2: 10]
[cat_smooth: 10]
[max_cat_to_onehot: 4]
[top_k: 20]
[monotone_constraints: ]
[monotone_constraints_method: basic]
[monotone_penalty: 0]
[feature_contri: ]
[forcedsplits_filename: ]
[refit_decay_rate: 0.9]
[cegb_tradeoff: 1]
[cegb_penalty_split: 0]
[cegb_penalty_feature_lazy: ]
[cegb_penalty_feature_coupled: ]
[path_smooth: 0]
[interaction_constraints: ]
[verbosity: 1]
[saved_feature_importance_type: 0]
[use_quantized_grad: 0]
[num_grad_quant_bins: 4]
[quant_train_renew_leaf: 0]
[stochastic_rounding: 1]
[linear_tree: 0]
[max_bin: 255]
[max_bin_by_feature: ]
[min_data_in_bin: 3]
[bin_construct_sample_cnt: 200000]
[data_random_seed: 175]
[is_enable_sparse: 1]
[enable_bundle: 1]
[use_missing: 1]
[zero_as_missing: 0]
[feature_pre_filter: 1]
[pre_partition: 0]
[two_round: 0]
[header: 0]
[label_column: ]
[weight_column: ]
[group_column: ]
[ignore_column: ]
[categorical_feature: ]
[forcedbins_filename: ]
[precise_float_parser: 0]
[parser_config_file: ]
[objective_seed: 16083]
[num_class: 1]
[is_unbalance: 0]
[scale_pos_weight: 0.866667]
[sigmoid: 1]
[boost_from_average: 1]
[reg_sqrt: 0]
[alpha: 0.9]
[fair_c: 1]
[poisson_max_delta_step: 0.7]
[tweedie_variance_power: 1.5]
[lambdarank_truncation_level: 30]
[lambdarank_norm: 1]
[label_gain: ]
[lambdarank_position_bias_regularization: 0]
[eval_at: ]
[multi_error_top_k: 1]
[auc_mu_weights: ]
[num_machines: 1]
[local_listen_port: 12400]
[time_out: 120]
[machine_list_filename: ]
[machines: ]
[gpu_platform_id: -1]
[gpu_device_id: -1]
[gpu_use_dp: 0]
[num_gpu: 1]

end of parameters

pandas_categorical:null
